{"conv1.bias": [-0.039778806269168854, 0.007395513821393251, 0.052987877279520035, 0.03029084950685501], "conv2.bias": [0.020547974854707718, -0.34860825538635254, 0.01034883875399828, -0.28246209025382996], "conv3.bias": [0.5336018204689026, 0.6442952752113342], "classifier.weight": [[-1.855902910232544, 2.329101085662842], [-1.7800177335739136, -2.316472053527832], [2.543713092803955, 2.234900712966919], [2.4806432723999023, -2.2876639366149902]], "classifier.bias": [0.22108536958694458, 0.30399879813194275, 0.30221638083457947, 0.3496207296848297], "onnx::MatMul_271": [[0.9893051981925964, -1.086769938468933, -0.32260996103286743, 0.05203954130411148], [-0.6487581729888916, -1.3011393547058105, 0.657602846622467, 0.7091616988182068], [-0.6693058013916016, 0.24557775259017944, 0.8903368711471558, 0.38997215032577515], [-0.06148787960410118, -0.7953605055809021, 0.17842377722263336, 0.6884163022041321], [0.602728009223938, -0.44313278794288635, -1.0069857835769653, -0.892364501953125], [1.1585496664047241, -0.2655121684074402, -0.7734331488609314, -1.1721446514129639], [0.7938240170478821, -0.8488277196884155, -0.6475750207901001, -0.8211773037910461], [-0.37291863560676575, -1.2819608449935913, -0.10548135638237, 0.7006009221076965], [-0.6078948974609375, 0.0859583243727684, 0.7784180641174316, 0.696262538433075], [-1.019310474395752, 0.4039895832538605, 0.8775168657302856, 0.6845762133598328], [0.888720691204071, -0.9797573089599609, -1.1781915426254272, -0.8090588450431824], [-0.14729619026184082, -0.7530568838119507, -0.3493485748767853, 0.4683321416378021], [0.3652832508087158, -1.0099921226501465, -0.7400269508361816, 0.8664591312408447], [-0.5544969439506531, -0.83162921667099, 0.27796292304992676, 0.646905243396759], [-0.8041731119155884, 0.40065357089042664, 0.5610171556472778, 0.8954498171806335], [-0.40787944197654724, 0.5778344869613647, 0.7195006012916565, 1.0170537233352661], [1.0150080919265747, -0.5675382018089294, -0.8564833998680115, -0.916665256023407], [0.26991909742355347, -1.1067417860031128, -0.6734952330589294, 0.8642145395278931], [-0.9722954630851746, 0.9948690533638, 0.6867814064025879, 0.872460126876831], [0.00881166011095047, -1.2402331829071045, 0.1046614795923233, 0.8391602039337158], [-0.6478948593139648, 0.7423437237739563, 0.3970860242843628, 0.3236689567565918], [0.18996644020080566, -1.2623893022537231, -0.1438230276107788, 0.9725214242935181], [-0.35285815596580505, 0.5717363357543945, 0.7316149473190308, 0.8425099849700928], [-0.5920195579528809, 0.9571552276611328, 1.2899011373519897, -1.0676792860031128], [0.4493282437324524, 1.272348165512085, -0.27916646003723145, -1.2199265956878662], [0.39506134390830994, 1.3687399625778198, -0.35890281200408936, -1.026166319847107], [-0.501311719417572, 0.7042592167854309, 0.7257919907569885, 0.6901788115501404], [-0.06783800572156906, 1.0436320304870605, 0.24994157254695892, -1.2360461950302124], [-1.1909691095352173, 0.9127604961395264, 0.48313701152801514, 0.14308391511440277], [-1.0784558057785034, 1.2222535610198975, 0.8701424598693848, 0.14414764940738678], [-1.0771617889404297, 0.2288603037595749, 0.9172793030738831, 0.6263406276702881], [-0.2184881865978241, 1.3793621063232422, -0.08236897736787796, -0.8696258068084717], [-0.6120357513427734, 0.5734186172485352, 0.9808420538902283, 0.4483223557472229], [-0.652914822101593, 1.0790694952011108, 0.6088036894798279, 0.8819981813430786]], "onnx::MatMul_274": [[1.2033096551895142, -0.6395524740219116, -0.9524175524711609, -0.8513108491897583], [1.0415713787078857, 1.668886423110962, -0.40985408425331116, 1.2509002685546875], [-1.3115639686584473, 0.5811384320259094, 1.502284288406372, 1.60927414894104], [-1.3608648777008057, -0.3753972053527832, 1.6849889755249023, 0.03924969211220741]], "onnx::MatMul_277": [[2.2809906005859375, -0.282516211271286], [0.9949228167533875, 1.749162197113037], [-2.182363748550415, 0.7861847877502441], [-0.22786638140678406, 1.534857153892517]]}